digraph Tree {
node [shape=box, style="filled, rounded", color="black", fontname="helvetica"] ;
edge [fontname="helvetica"] ;
0 [label=<Garantia_Adequada &le; 0.5<br/>entropy = 1.58<br/>samples = 30<br/>value = [11, 9, 10]<br/>class = Alto>, fillcolor="#fef9f5"] ;
1 [label=<Renda_Acima de $35k &le; 0.5<br/>entropy = 1.406<br/>samples = 20<br/>value = [11, 3, 6]<br/>class = Alto>, fillcolor="#f6d2b8"] ;
0 -> 1 [labeldistance=2.5, labelangle=45, headlabel="True"] ;
2 [label=<História de Crédito_Boa &le; 0.5<br/>entropy = 0.94<br/>samples = 14<br/>value = [9, 0, 5]<br/>class = Alto>, fillcolor="#f3c7a7"] ;
1 -> 2 ;
3 [label=<Renda_$0 a $15k &le; 0.5<br/>entropy = 0.503<br/>samples = 9<br/>value = [8, 0, 1]<br/>class = Alto>, fillcolor="#e89152"] ;
2 -> 3 ;
4 [label=<Dívida_Alta &le; 0.5<br/>entropy = 0.918<br/>samples = 3<br/>value = [2, 0, 1]<br/>class = Alto>, fillcolor="#f2c09c"] ;
3 -> 4 ;
5 [label=<entropy = 0.0<br/>samples = 1<br/>value = [0, 0, 1]<br/>class = Moderado>, fillcolor="#8139e5"] ;
4 -> 5 ;
6 [label=<entropy = 0.0<br/>samples = 2<br/>value = [2, 0, 0]<br/>class = Alto>, fillcolor="#e58139"] ;
4 -> 6 ;
7 [label=<entropy = 0.0<br/>samples = 6<br/>value = [6, 0, 0]<br/>class = Alto>, fillcolor="#e58139"] ;
3 -> 7 ;
8 [label=<Renda_$0 a $15k &le; 0.5<br/>entropy = 0.722<br/>samples = 5<br/>value = [1, 0, 4]<br/>class = Moderado>, fillcolor="#a06aec"] ;
2 -> 8 ;
9 [label=<entropy = 0.0<br/>samples = 3<br/>value = [0, 0, 3]<br/>class = Moderado>, fillcolor="#8139e5"] ;
8 -> 9 ;
10 [label=<Dívida_Alta &le; 0.5<br/>entropy = 1.0<br/>samples = 2<br/>value = [1, 0, 1]<br/>class = Alto>, fillcolor="#ffffff"] ;
8 -> 10 ;
11 [label=<entropy = 0.0<br/>samples = 1<br/>value = [0, 0, 1]<br/>class = Moderado>, fillcolor="#8139e5"] ;
10 -> 11 ;
12 [label=<entropy = 0.0<br/>samples = 1<br/>value = [1, 0, 0]<br/>class = Alto>, fillcolor="#e58139"] ;
10 -> 12 ;
13 [label=<Idade_Adulto &le; 0.5<br/>entropy = 1.459<br/>samples = 6<br/>value = [2, 3, 1]<br/>class = Baixo>, fillcolor="#cef8e0"] ;
1 -> 13 ;
14 [label=<Dívida_Baixa &le; 0.5<br/>entropy = 1.0<br/>samples = 2<br/>value = [1, 0, 1]<br/>class = Alto>, fillcolor="#ffffff"] ;
13 -> 14 ;
15 [label=<entropy = 0.0<br/>samples = 1<br/>value = [1, 0, 0]<br/>class = Alto>, fillcolor="#e58139"] ;
14 -> 15 ;
16 [label=<entropy = 0.0<br/>samples = 1<br/>value = [0, 0, 1]<br/>class = Moderado>, fillcolor="#8139e5"] ;
14 -> 16 ;
17 [label=<História de Crédito_Boa &le; 0.5<br/>entropy = 0.811<br/>samples = 4<br/>value = [1, 3, 0]<br/>class = Baixo>, fillcolor="#7beeab"] ;
13 -> 17 ;
18 [label=<Dívida_Alta &le; 0.5<br/>entropy = 1.0<br/>samples = 2<br/>value = [1, 1, 0]<br/>class = Alto>, fillcolor="#ffffff"] ;
17 -> 18 ;
19 [label=<entropy = 0.0<br/>samples = 1<br/>value = [0, 1, 0]<br/>class = Baixo>, fillcolor="#39e581"] ;
18 -> 19 ;
20 [label=<entropy = 0.0<br/>samples = 1<br/>value = [1, 0, 0]<br/>class = Alto>, fillcolor="#e58139"] ;
18 -> 20 ;
21 [label=<entropy = 0.0<br/>samples = 2<br/>value = [0, 2, 0]<br/>class = Baixo>, fillcolor="#39e581"] ;
17 -> 21 ;
22 [label=<História de Crédito_Ruim &le; 0.5<br/>entropy = 0.971<br/>samples = 10<br/>value = [0, 6, 4]<br/>class = Baixo>, fillcolor="#bdf6d5"] ;
0 -> 22 [labeldistance=2.5, labelangle=-45, headlabel="False"] ;
23 [label=<Renda_$0 a $15k &le; 0.5<br/>entropy = 0.592<br/>samples = 7<br/>value = [0, 6, 1]<br/>class = Baixo>, fillcolor="#5ae996"] ;
22 -> 23 ;
24 [label=<entropy = 0.0<br/>samples = 6<br/>value = [0, 6, 0]<br/>class = Baixo>, fillcolor="#39e581"] ;
23 -> 24 ;
25 [label=<entropy = 0.0<br/>samples = 1<br/>value = [0, 0, 1]<br/>class = Moderado>, fillcolor="#8139e5"] ;
23 -> 25 ;
26 [label=<entropy = 0.0<br/>samples = 3<br/>value = [0, 0, 3]<br/>class = Moderado>, fillcolor="#8139e5"] ;
22 -> 26 ;
}